fc1.weight: [[ 0.39987233 -0.03803972]
 [ 0.38215274  0.08689067]
 [-0.1717375   0.4518558 ]
 [-0.377116    0.10066461]
 [ 0.18802068  0.38717094]
 [ 0.36219442 -0.17223622]
 [-0.16679867 -0.45583698]
 [ 0.3885177  -0.13180025]
 [ 0.35390025 -0.21651208]
 [ 0.38783303 -0.04801074]
 [ 0.20814167  0.3165937 ]
 [ 0.38838175 -0.00308408]
 [ 0.3824948  -0.11323986]
 [-0.36436298 -0.11425574]
 [ 0.38450384 -0.03392349]
 [ 0.37567168 -0.05722917]
 [ 0.399311   -0.06437589]
 [-0.36721078 -0.11396636]
 [-0.02455981  0.64122146]
 [-0.34672993  0.01788684]
 [-0.38063666  0.10998511]
 [-0.38083366 -0.07186939]
 [-0.37335876 -0.08171853]
 [ 0.30002487  0.09540068]
 [ 0.19337015  0.43562976]
 [-0.00418854 -0.627499  ]
 [ 0.0638459   0.55979383]
 [-0.29352495 -0.03942871]
 [-0.32684705 -0.2156689 ]
 [ 0.18656325 -0.47358105]
 [-0.37363568 -0.09701377]
 [-0.34743446 -0.1662742 ]
 [-0.38281113 -0.05049552]
 [-0.3473905   0.03975153]
 [-0.08866951  0.5281789 ]
 [ 0.39971325 -0.00219534]
 [ 0.3249714  -0.280065  ]
 [-0.3800582   0.11520325]
 [ 0.24586944 -0.39817837]
 [ 0.05073501  0.6210423 ]
 [ 0.3747669   0.11241645]
 [-0.35735205  0.16249818]
 [-0.37158832  0.15124196]
 [ 0.3742317   0.1153354 ]
 [ 0.01719818 -0.66163474]
 [ 0.02447696  0.6815196 ]
 [-0.32660925 -0.18951882]
 [-0.34969527 -0.08642693]
 [-0.11346965 -0.52082926]
 [ 0.36237913 -0.20053042]
 [-0.38424656 -0.0470957 ]
 [-0.39112338  0.05964758]
 [ 0.00460413  0.6263316 ]
 [-0.21337435  0.36002806]
 [ 0.01209058 -0.64739144]
 [ 0.2738539   0.18374951]
 [-0.03415503 -0.53697133]
 [-0.38602585 -0.00108584]
 [ 0.40007976 -0.08162422]
 [-0.36392823 -0.10251869]
 [ 0.3338294   0.20530029]
 [ 0.34125    -0.2510725 ]
 [-0.38489276 -0.03755056]
 [ 0.265785    0.30840734]]
fc1.bias: [-0.00225504 -0.00239105 -0.0025242  -0.00249703 -0.00246319 -0.00213483
 -0.00210917 -0.00214999 -0.00208503 -0.00225778 -0.00248729 -0.0023063
 -0.00218402 -0.00229328 -0.00227759 -0.00226183 -0.00222382 -0.00228916
 -0.00233799 -0.00245764 -0.00250134 -0.00231968 -0.00231907 -0.0024488
 -0.00244125 -0.0018954  -0.00237049 -0.00246639 -0.00222438 -0.00197352
 -0.00230007 -0.00225486 -0.0023421  -0.0024757  -0.00244119 -0.00229544
 -0.00204087 -0.00250581 -0.00199875 -0.00232985 -0.00241326 -0.00255217
 -0.002537   -0.00241541 -0.00182712 -0.00229225 -0.00225884 -0.00234821
 -0.0020516  -0.00209401 -0.002344   -0.00244817 -0.00233775 -0.00257736
 -0.00185484 -0.00248589 -0.00204994 -0.00239298 -0.00220083 -0.00230832
 -0.00247119 -0.00205559 -0.00235411 -0.00248493]
fc2.weight: [[-7.5579211e-02 -7.3866300e-02  2.6936656e-02 ... -6.1651532e-02
   7.3316328e-02 -5.4813743e-02]
 [-7.4418642e-02 -7.9397060e-02  3.3149873e-03 ... -4.8913918e-02
   7.6231524e-02 -7.1860388e-02]
 [-3.1682774e-02 -4.5601994e-02 -4.0285766e-02 ... -1.9656523e-05
   3.9240334e-02 -6.2486503e-02]
 ...
 [ 6.8648249e-02  7.4113987e-02 -2.8149408e-04 ...  4.3535206e-02
  -7.1331561e-02  6.8600625e-02]
 [ 5.7429794e-02  6.7888126e-02  2.0323221e-02 ...  2.6025124e-02
  -6.3254483e-02  7.3217779e-02]
 [-5.1576752e-02 -4.9449064e-02  2.1567279e-02 ... -4.3858018e-02
   4.9192749e-02 -3.4839001e-02]]
fc2.bias: [-4.0521656e-04 -3.1633617e-04 -3.7135329e-04 -4.8120541e-04
 -5.9288245e-04 -4.1862050e-04 -1.3719233e-04 -4.9558288e-04
 -4.6551216e-04 -1.9808323e-04 -5.2421557e-04 -3.7573397e-04
 -2.5934169e-05 -6.2029233e-04 -3.8724119e-04 -4.6968242e-04
 -1.9819025e-04 -2.9780940e-04  1.3947112e-05 -2.6253107e-04
  4.5452616e-05 -4.2349892e-04 -4.8065028e-04 -3.2427761e-04
 -7.3673429e-05 -2.9133249e-04 -5.5840523e-05 -1.6730744e-04
 -2.6511971e-04 -2.5815872e-04 -5.4201001e-04 -4.5709609e-04
 -2.8666624e-04 -2.7460474e-04  7.0571614e-06 -5.4820121e-04
 -4.7840161e-04 -6.4764323e-04 -2.7971173e-04 -5.5780984e-04
 -4.5686387e-04  2.2820561e-04  1.5998214e-04  1.0540873e-05
 -5.0366099e-04 -4.7827754e-04 -3.1641868e-04 -1.5315620e-04
 -2.4572655e-06 -5.1516941e-04 -4.3054062e-04 -5.4124260e-04
 -5.2561500e-04 -6.1193935e-04 -4.2093085e-04 -2.9875755e-05
 -1.2216689e-04 -3.2142995e-04 -3.6744185e-04 -5.0619349e-04
 -5.4606757e-05 -1.9141418e-04 -2.4337482e-04 -5.2726991e-04]
fc3.weight: [[-0.4746444  -0.4878537  -0.23705763 -0.22020194 -0.21512862 -0.26824015
   0.03469145  0.04555968 -0.48659742  0.46307218 -0.3218654   0.2371143
   0.16715078 -0.22793454  0.2545031  -0.48297966  0.3655332   0.3050161
   0.07997379  0.37107956 -0.08175916 -0.45405164 -0.18340799 -0.19460024
   0.48875108  0.30110937  0.37335894  0.39778477  0.40253317  0.34284598
  -0.3399637  -0.3448236  -0.23172313  0.3417689   0.33783597 -0.48364154
  -0.4242163   0.08690885  0.3372101  -0.18637787  0.08948753  0.3927232
   0.1401287  -0.35188985 -0.25406414 -0.144499    0.05282272  0.37840593
  -0.08956538  0.13115074 -0.04525919 -0.30354223 -0.26615077 -0.22738165
  -0.4036119  -0.08201811  0.48304316  0.26574066  0.26825655 -0.36748603
   0.38103727  0.45294595  0.39507383 -0.3164113 ]
 [-0.01033062 -0.1426121  -0.29371038 -0.22323938  0.11282577 -0.23501396
  -0.45158565  0.19619572  0.13215789  0.19493115  0.1228285   0.1348899
  -0.4593183   0.02631791 -0.03239975  0.14043629 -0.08055252  0.397282
  -0.52855945  0.30576938 -0.5924089   0.00469309  0.3480772  -0.3449961
  -0.0542514   0.26602793 -0.24661906 -0.06105036  0.36652783 -0.01275925
   0.4259235  -0.09814037 -0.35634395  0.1195043  -0.34584817  0.33966747
   0.11648689  0.03634825  0.34431     0.6303868   0.20367254 -0.4906597
  -0.6028979  -0.5536151   0.3825349   0.30914715 -0.34589094 -0.12448569
  -0.5605539   0.10976385  0.34056228  0.03370169  0.467481    0.05540618
  -0.06831468 -0.54144776  0.02485492  0.21298398  0.57488394  0.16977882
  -0.23786679  0.14922538  0.2413105   0.01227978]]
fc3.bias: [0.01865151 0.01627196]
