fc1.weight: [[-3.2347597e-02 -2.6573429e-02 -6.0228282e-01]
 [ 1.4004205e-01  9.1546111e-02  6.5072435e-01]
 [ 3.6462154e-02  2.8995827e-01 -6.3802011e-02]
 [-2.0199928e-01 -4.9726969e-01  7.0212907e-01]
 [-3.1764084e-01 -2.0277772e-02 -6.1193582e-02]
 [ 3.1634775e-01  2.8984222e-01  1.7480942e+00]
 [ 9.9844642e-02 -5.8691323e-01  2.1355179e-01]
 [ 3.8420370e-01  6.8872519e-02  1.0695854e-01]
 [ 1.6968865e-02  1.5951338e-01  7.1521384e-01]
 [-7.3357433e-01 -1.1775868e-01 -3.0298406e-01]
 [-1.0490343e-01  2.5153148e-01 -6.6801295e-02]
 [ 1.5295961e-02 -1.3947965e-01 -3.3489740e-01]
 [-3.4688966e-04  3.9065346e-01  6.7573681e-02]
 [ 5.3473788e-01 -1.9938667e-01 -1.2958466e+00]
 [-1.4856102e-01 -3.5825357e-01 -4.7048110e-01]
 [-8.2342543e-02  3.7282875e-01  7.9449254e-01]]
fc1.bias: [ 1.3654131  -1.7139348   1.2511082   1.5125631   0.46525973  0.25103503
  0.92470884 -1.1294851  -2.1184788  -2.3279355   0.5605971   0.29932627
 -0.98223615 -0.14462747 -0.22615393 -0.54874647]
fc2.weight: [[-7.12240398e-01  1.52553275e-01 -6.80221975e-01  3.67242754e-01
   6.14457250e-01  2.44617328e-01  1.77460358e-01 -1.66017964e-01
   2.89471328e-01  7.15169430e-01 -7.01068282e-01  1.03116548e+00
  -5.22038817e-01 -5.85732579e-01  6.43486857e-01 -4.35333252e-01]
 [-8.25394392e-01  1.50286287e-01  2.79273480e-01 -5.18599033e-01
  -1.35887671e+00  4.59923208e-01  4.56298962e-02  9.44809675e-01
   4.66233522e-01 -1.25228870e+00 -8.36386979e-01 -8.58860791e-01
   2.54512489e-01  1.11043262e+00 -4.42829341e-01 -4.83096123e-01]
 [ 8.49144086e-02  4.52212989e-02  2.85677314e-01 -6.31777883e-01
  -6.73163056e-01  4.96253997e-01 -5.02632499e-01  2.01206848e-01
   3.93179525e-03 -6.16631806e-01  1.57057598e-01 -1.51913548e+00
   6.12738013e-01 -7.62568833e-03 -9.88880634e-01  3.87661785e-01]
 [-1.05145621e+00  6.63356781e-01 -4.67471331e-01  1.88546121e-01
   5.54539680e-01 -1.19872332e-01  2.22215071e-01 -3.58765870e-01
   3.35286915e-01  8.84493113e-01 -5.65754473e-01  6.04512513e-01
  -5.70290625e-01 -1.25345898e+00  2.14789197e-01  1.06063159e-02]
 [-2.50773072e-01 -3.71043444e-01 -2.14056209e-01  6.04815066e-01
   1.99239671e-01  3.10325921e-01  9.70092356e-01  4.55742151e-01
   3.71809723e-03 -3.88391554e-01 -7.00812995e-01  1.72471368e+00
  -4.26822752e-01  4.91706669e-01  1.79605842e+00 -4.67846423e-01]
 [-2.41882014e+00  7.93961287e-01 -4.14674103e-01 -3.80777605e-02
  -9.35698003e-02 -1.33516252e-01 -3.18289757e-01 -5.79377890e-01
   6.87153399e-01  1.14353609e+00 -1.16990544e-01 -1.21719825e+00
   4.83192414e-01 -1.71266150e+00 -9.47015882e-01  6.48146570e-01]
 [-7.79645294e-02  5.98376580e-02  2.61645973e-01 -9.62797940e-01
  -5.10537207e-01 -2.21293911e-01 -1.09015942e+00 -9.93757695e-02
  -1.65738091e-01  4.93694395e-01  1.04150522e+00 -1.69366980e+00
   1.17636621e+00  1.05776630e-01 -1.46927965e+00  5.57557881e-01]
 [-1.28970003e+00 -5.30714402e-03 -7.37424552e-01 -4.17684801e-02
   4.25410494e-02 -5.77834807e-02  5.13427973e-01  3.35332155e-01
   3.31201494e-01  6.45659149e-01 -1.48420441e+00  6.51006579e-01
  -9.02918756e-01  6.18454635e-01  1.22943223e+00 -4.68434542e-01]
 [ 1.58315396e+00 -3.94161284e-01  1.17858088e+00 -2.31893718e-01
  -6.56953812e-01  3.84014308e-01 -3.44079912e-01  3.81553739e-01
  -2.46864989e-01 -1.13824165e+00  8.75064790e-01 -8.91601562e-01
   4.53175455e-01  7.26286471e-01 -8.60546529e-01  4.14960980e-01]
 [-2.30645880e-01  6.47184312e-01 -9.46705341e-02 -9.32914438e-04
   1.04994929e+00 -4.58026290e-01  6.53380807e-03 -8.86977077e-01
  -1.02782957e-01  1.29438496e+00  1.00214124e+00 -2.86285967e-01
   3.37010711e-01 -9.35499549e-01 -3.13557625e-01  9.64281201e-01]
 [-1.43382275e+00  1.07956791e+00 -5.17202318e-01  6.93544805e-01
  -1.08671933e-01  1.14919508e+00  6.46774173e-01  6.73789561e-01
   1.04863489e+00 -7.10580766e-01 -5.56266785e-01 -2.44921759e-01
   2.40053266e-01 -1.59746242e+00 -3.71604651e-01  6.59997284e-01]
 [-1.84058920e-01  4.14586544e-01 -3.56652439e-01  3.34527493e-01
   1.40628636e+00 -6.85267389e-01  3.02676201e-01 -8.60442936e-01
  -1.21176794e-01  9.39345241e-01 -1.40980765e-01  1.12008643e+00
   1.13574803e-01 -6.77949846e-01  4.57056582e-01  1.12274401e-01]
 [-1.70226133e+00  6.27542973e-01 -4.18289185e-01 -4.00264025e-01
  -1.46287465e+00  9.08428133e-01  3.18989605e-01  1.07069182e+00
   1.00942516e+00 -9.05282319e-01 -9.27893281e-01 -1.50667787e+00
   2.81075507e-01  2.22766493e-02 -1.38589656e+00  5.64575754e-02]
 [-1.40481269e+00  2.13532656e-01 -4.46005851e-01 -3.54125053e-01
  -1.47386253e+00  3.91977936e-01  2.39110440e-01  1.45234215e+00
   5.63965082e-01 -1.49956322e+00 -1.75573361e+00 -7.88402736e-01
  -2.11091578e-01  1.53050804e+00 -8.88014138e-02 -4.68458682e-01]
 [-1.42683947e+00  6.63850367e-01 -7.89957583e-01  5.40280223e-01
   2.57662445e-01  2.85547346e-01  2.72279501e-01 -1.97853476e-01
   7.60073364e-01 -9.22080278e-02 -5.52705169e-01 -9.43325311e-02
  -2.53484160e-01 -1.36682999e+00 -1.49110749e-01  3.71215373e-01]
 [-6.57775939e-01  3.35107833e-01 -2.33178556e-01  3.97541672e-01
   9.12197411e-01 -2.14155108e-01 -1.49524748e-01 -7.34279990e-01
   2.87136853e-01  1.02320147e+00  2.50903964e-01  3.59608561e-01
  -5.01295459e-03 -1.40716696e+00 -9.81055945e-03  6.31473541e-01]
 [-1.19358850e+00  6.45858765e-01 -3.10987204e-01  1.14647977e-01
  -7.06909060e-01  1.04038215e+00  4.27681863e-01  5.93154252e-01
   1.06306446e+00 -9.26392853e-01 -9.35618520e-01 -1.67821395e+00
   4.49794471e-01 -3.81911933e-01 -1.45529246e+00  3.83557081e-01]
 [ 1.55812240e+00 -4.14929725e-02  1.03889406e+00 -9.07570347e-02
   4.53235865e-01 -4.58704084e-01 -2.12421879e-01 -7.17092454e-01
  -6.38240695e-01  4.74190772e-01  1.90158987e+00 -3.82136792e-01
   4.30892646e-01 -8.77117038e-01 -9.31695759e-01  7.53675401e-01]
 [-4.57319140e-01 -1.66775137e-01 -7.08816797e-02  2.60137826e-01
  -3.29904646e-01  3.89528543e-01  1.34930730e-01  5.67938745e-01
  -1.05286732e-01 -8.33482921e-01 -1.09848845e+00  7.30593204e-01
  -2.14275479e-01  6.90024793e-01  9.24585819e-01 -7.32751548e-01]
 [-1.20191360e+00  3.96973103e-01 -7.77866542e-01  1.08856447e-01
   3.80386591e-01 -5.96717656e-01 -4.90027785e-01 -8.69694054e-01
   3.47171932e-01  2.05354190e+00 -8.82630497e-02  1.05604447e-01
   1.85144216e-01 -1.38048363e+00  1.84854910e-01  4.39233959e-01]
 [ 1.51873648e+00 -1.61287218e-01  1.58623624e+00  6.23088237e-03
  -7.24233210e-01  4.96304870e-01 -2.03448042e-01  3.92680585e-01
  -3.10524017e-01 -1.71247160e+00  8.40807736e-01 -9.46459293e-01
   8.39604318e-01  1.62838418e-02 -1.45271933e+00  5.56927681e-01]
 [ 1.58774495e-01 -1.15195401e-01 -9.94395688e-02  7.57377446e-01
  -2.18662113e-01  8.18518162e-01  1.48555899e+00  1.57055438e+00
   1.56645596e-01 -1.81214571e+00 -1.20330453e+00  1.16309845e+00
  -4.92198557e-01  9.05105233e-01  8.82339358e-01 -5.72302818e-01]
 [-2.12343287e+00  7.66163826e-01 -6.45525038e-01  4.29781437e-01
  -3.91745448e-01  2.94796884e-01  1.52688727e-01  2.11296171e-01
   1.01457989e+00 -2.46150151e-01 -8.77820253e-01 -1.18499625e+00
  -4.44283336e-02 -1.11868596e+00 -1.16620684e+00  4.90262210e-01]
 [ 3.06298196e-01 -2.42063269e-01 -2.27534309e-01  6.13313556e-01
   1.14681661e+00 -2.72481173e-01  7.82948673e-01 -1.46068305e-01
  -6.15154386e-01 -8.90517384e-02 -5.46800137e-01  2.13820863e+00
  -9.11820054e-01  7.32746780e-01  1.59694934e+00 -4.66314167e-01]
 [-7.86891103e-01 -1.68628886e-01  1.81573987e-01 -9.58204716e-02
  -1.31800771e+00  7.11006582e-01 -5.04093431e-02  1.42566085e+00
   5.29799521e-01 -1.13358486e+00 -1.28659570e+00 -1.21632838e+00
  -2.20892295e-01  1.02352023e+00 -3.15923125e-01 -5.31365752e-01]
 [ 1.29711068e+00 -5.65838695e-01  5.48730314e-01  1.00037344e-01
  -2.57452458e-01  3.04020971e-01  5.57621539e-01  1.17925775e+00
  -2.51076281e-01 -1.09752452e+00 -4.64970797e-01  1.30672467e+00
  -5.15596867e-01  1.86903942e+00  1.48549712e+00 -6.21311903e-01]
 [-9.56818283e-01 -2.78650612e-01 -9.15006459e-01  2.07354411e-01
  -1.19754031e-01  9.82794687e-02  3.55963975e-01  3.66178334e-01
  -1.39867803e-02  6.92237839e-02 -1.23475504e+00  8.72713745e-01
  -5.19025803e-01  6.15317464e-01  1.41177297e+00 -7.96856999e-01]
 [-7.92602658e-01  1.85701728e-01  8.93482044e-02  5.56109488e-01
  -7.11720586e-01  1.25101888e+00  7.77139187e-01  9.76263881e-01
   8.75670075e-01 -1.61159980e+00 -9.02525842e-01 -1.30818486e-01
  -2.94459194e-01 -6.93987429e-01 -4.28719252e-01  2.33186617e-01]
 [-1.50650275e+00  5.29862463e-01 -6.10611141e-01  4.02223319e-01
   2.06943005e-01  1.77842617e-01  4.44659024e-01 -1.63203210e-01
   6.24543369e-01  4.43428189e-01 -6.39955163e-01 -6.77332580e-02
  -2.90320456e-01 -1.38559401e+00  2.27159962e-01  2.24047422e-01]
 [ 1.28559840e+00 -3.00086528e-01  1.27937400e+00  1.06393240e-01
  -4.66311991e-01  1.33652298e-03 -3.18142891e-01  2.13231936e-01
  -1.54241547e-01 -9.17593658e-01  8.55069220e-01 -7.24171221e-01
   4.51714605e-01  2.86125600e-01 -8.30192566e-01  1.50119513e-01]
 [-1.07410431e+00  1.02279794e+00 -4.80565518e-01  6.06578410e-01
   1.24302968e-01  1.04838157e+00  1.67345181e-01 -1.18725196e-01
   9.92360115e-01 -8.57231975e-01 -3.02394688e-01 -3.28825355e-01
   1.47365659e-01 -2.04272413e+00 -4.06871170e-01  6.26148760e-01]
 [-2.24158430e+00  8.04475307e-01 -8.03547382e-01  2.94198424e-01
  -6.38713419e-01  6.76527619e-01  7.08798468e-02  1.16931774e-01
   1.16922319e+00  9.21507627e-02 -6.96951985e-01 -9.40600991e-01
  -4.07958589e-02 -1.30507839e+00 -1.08930314e+00  5.80757022e-01]]
fc2.bias: [-0.3799949  -0.35213116  0.0192438  -0.06763645 -0.02508097 -0.7337726
 -0.34558165 -0.35216352  0.54840696 -0.3161046  -0.13216804  0.01179247
 -0.21948928 -0.10803854 -0.33701015 -0.4173418  -0.453251    0.45632774
  0.00379789 -0.36891198  0.26390263  0.37191555 -0.27633017  0.41979456
 -0.40101805  0.35035396 -0.49971867  0.0867464  -0.46506077  0.21358585
  0.03543723 -0.69349265]
fc3.weight: [[ 5.63059151e-01  8.35360214e-03 -8.90335441e-01  9.72155780e-02
   9.66773510e-01 -2.32969627e-01 -9.80831206e-01  1.37233734e+00
  -8.06921721e-01 -6.17706776e-01  1.01040795e-01  3.02075148e-01
  -2.60678470e-01  8.60869288e-01  4.46860604e-02 -3.66458952e-01
  -4.51058447e-01 -1.14704561e+00  9.75789309e-01  7.56112263e-02
  -1.06377637e+00  6.41199648e-01 -4.13338728e-02  8.53437841e-01
   3.28048855e-01  5.20761847e-01  1.36284757e+00 -2.80044656e-02
   1.93148389e-01 -9.14259195e-01 -5.08484542e-01  1.18383793e-02]
 [-9.70173538e-01  1.09792602e+00  9.23702776e-01 -6.03309512e-01
  -9.70972300e-01  4.24526960e-01  9.59277689e-01 -2.80430198e-01
   3.66433769e-01 -4.06312287e-01  1.13677800e-01 -1.29107881e+00
   1.25222123e+00  8.60127568e-01 -4.10989583e-01 -7.60046184e-01
   7.33955503e-01  1.37835294e-01 -3.25403005e-01 -3.28242332e-01
   4.42424834e-01 -5.15451193e-01  3.08121353e-01 -1.69060934e+00
   1.03428352e+00 -2.35582918e-01 -4.42976773e-01  2.69447535e-01
  -5.31318665e-01  5.83833337e-01 -1.61186725e-01  1.07213892e-01]
 [-2.77178019e-01  8.27050090e-01  3.60121816e-01 -4.19833399e-02
  -4.91518155e-02 -3.03626537e-01 -1.07796125e-01 -2.51940101e-01
   6.48048222e-01 -7.06110120e-01  3.73093486e-01 -8.71663272e-01
   1.01475728e+00  9.17664409e-01  1.36900797e-01 -7.00671494e-01
   1.05320966e+00 -4.44526881e-01  2.04875425e-01 -7.41292238e-01
   6.31267667e-01  4.65139240e-01  5.27820945e-01 -7.74562895e-01
   1.00652933e+00 -2.95966603e-02 -2.36159414e-01  7.89470494e-01
  -8.62624049e-02  2.33073175e-01  1.47166297e-01  4.30940568e-01]
 [ 2.64595121e-01 -3.71346563e-01 -3.63919854e-01  6.22071147e-01
  -1.11444809e-01  9.17759180e-01 -6.63862944e-01  2.76961356e-01
  -1.01231647e+00  1.58916444e-01  9.15851176e-01  2.20772967e-01
   1.11933880e-01 -8.30358937e-02  7.38162637e-01  6.52081966e-01
   3.75381738e-01 -6.25956655e-01 -1.31272733e-01  3.63824368e-01
  -7.78409958e-01 -2.46045412e-03  7.66810596e-01 -3.52374613e-01
  -2.23829269e-01 -8.28292072e-01  3.01152587e-01  4.23590481e-01
   6.85511470e-01 -7.14430213e-01  4.40242559e-01  8.88798773e-01]
 [-7.67858028e-01  2.98639596e-01  8.97496760e-01 -5.98266482e-01
  -7.65795529e-01  1.04010053e-01  1.25573575e+00 -8.61557841e-01
   9.22450006e-01  2.71807462e-01  3.13270874e-02 -6.06872618e-01
   3.17477137e-01 -2.65643690e-02 -4.33573872e-01 -1.83388650e-01
   4.21884567e-01  6.34705365e-01 -3.03035885e-01 -2.50075698e-01
   7.48019218e-01 -1.85102656e-01 -1.41807407e-01 -1.01481318e+00
   3.26435000e-01  1.19875884e-02 -9.55508649e-01  2.40267053e-01
  -3.83223593e-01  6.68452024e-01 -8.72744396e-02  3.02474163e-02]
 [-6.59046113e-01  7.15692997e-01  6.39158487e-01 -6.15807593e-01
  -2.47239128e-01 -9.25924107e-02  7.72158146e-01 -4.14584428e-01
   8.77777874e-01 -4.50871497e-01 -3.23994420e-02 -1.08102453e+00
   5.05573452e-01  7.88990259e-01 -1.96161792e-01 -6.59349859e-01
   3.45666707e-01  9.06231254e-02  4.02649343e-02 -7.72771299e-01
   6.91085994e-01 -3.13323103e-02  6.57625720e-02 -7.86357343e-01
   8.97520185e-01  1.63083002e-01 -3.17287922e-01  1.53242692e-01
  -6.06406868e-01  4.52146947e-01 -5.63311651e-02 -9.57238376e-02]
 [ 2.21834466e-01 -5.26268542e-01 -4.42815758e-02  2.56156802e-01
  -3.74068946e-01  1.30201745e+00  6.13774825e-03 -1.85599551e-01
  -8.44232500e-01  7.62673259e-01  5.13779163e-01  2.56333888e-01
   1.91632748e-01 -6.04085088e-01  5.49055338e-01  7.61315703e-01
   1.93011671e-01 -4.67986837e-02 -5.66371679e-01  8.74188125e-01
  -4.21636760e-01 -4.58141625e-01  6.68126702e-01 -5.78548849e-01
  -5.84045291e-01 -1.15484071e+00 -1.95707783e-01 -9.54020768e-03
   6.39726400e-01 -6.23120308e-01  6.39001608e-01  7.13705242e-01]
 [-2.05326527e-01 -2.22750127e-01 -3.73581611e-02  3.00822079e-01
  -7.04693675e-01  1.40436685e+00  4.68621962e-02 -3.73507470e-01
  -6.95336759e-01  8.07713985e-01  5.89487731e-01 -8.35954919e-02
   7.36491084e-01 -2.94792771e-01  6.41936064e-01  6.34877920e-01
   6.67744696e-01 -1.43229127e-01 -7.58736134e-01  8.14781904e-01
  -4.74565893e-01 -6.56810701e-01  9.37175453e-01 -1.19338250e+00
  -2.88847208e-01 -1.38734245e+00 -5.32216668e-01 -4.97274064e-02
   6.68128490e-01 -3.49037260e-01  6.69991136e-01  9.90600049e-01]
 [ 4.31382924e-01  8.21899399e-02 -5.06710112e-01  1.22095551e-02
   3.52269977e-01 -3.21024090e-01 -9.19096291e-01  8.52337122e-01
  -9.82254267e-01 -7.21973181e-01  5.75273514e-01 -3.53349745e-01
   4.58332866e-01  9.90354419e-01  1.21028282e-01 -3.77838612e-01
   3.60523105e-01 -1.22073007e+00  4.10888404e-01 -7.32017756e-02
  -5.93139052e-01  6.60170197e-01  4.70664144e-01 -1.86507031e-01
   4.70030546e-01  3.33768278e-01  7.65762210e-01  7.99001157e-01
   3.56309175e-01 -6.05371594e-01  6.18742742e-02  4.96609539e-01]
 [ 4.74650450e-02 -4.93735224e-01 -1.66679546e-01  4.64904130e-01
  -1.86359197e-01  1.24209547e+00 -7.92669132e-02  1.03133574e-01
  -7.05862582e-01  7.66833663e-01  4.20624197e-01  3.36742789e-01
   3.38912010e-02 -6.18136168e-01  5.76277614e-01  7.94913411e-01
   2.07226515e-01 -8.80766585e-02 -3.82934958e-01  9.05177474e-01
  -7.43288875e-01 -5.21419346e-01  5.90527833e-01 -4.36460048e-01
  -5.19649446e-01 -1.22584581e+00 -2.72204965e-01  1.15525112e-01
   7.08565116e-01 -7.66655266e-01  5.47379732e-01  5.49205840e-01]
 [ 3.04036170e-01 -1.42593995e-01  1.27237067e-01  2.59902418e-01
  -5.19633628e-02  4.68938112e-01 -6.03395700e-01  1.00240596e-01
  -6.86056256e-01 -2.94031292e-01  1.98448682e+00 -4.27461475e-01
   3.62594008e-01 -1.67456269e-01  1.15868390e+00  2.66923934e-01
   8.57221246e-01 -9.20911610e-01 -7.10580871e-02 -4.58426833e-01
  -3.82041812e-01  5.89514375e-01  1.09159720e+00 -3.37018400e-01
  -1.89840481e-01 -5.52086711e-01  4.26908210e-02  1.66752946e+00
   1.15823829e+00 -7.13710785e-01  1.52240288e+00  1.20804369e+00]
 [-5.35753429e-01 -1.31059989e-01  5.87417603e-01 -2.96207160e-01
  -1.26719379e+00  9.13645506e-01  1.22320592e+00 -9.30421233e-01
   3.88846725e-01  8.49942327e-01 -1.26994506e-01 -3.69662084e-02
   2.84296840e-01 -3.30607772e-01 -1.70419484e-01  2.82374084e-01
   1.38306245e-01  7.61298060e-01 -1.13762891e+00  6.22968435e-01
   2.55124807e-01 -1.39354920e+00  5.51157556e-02 -1.07634902e+00
  -3.64318758e-01 -1.28323352e+00 -9.96314049e-01 -5.15844345e-01
  -2.85142452e-01  3.45243007e-01  1.30176544e-01  2.12356403e-01]
 [-1.70841321e-01  8.22464943e-01  1.94180816e-01 -1.45161763e-01
  -1.69839993e-01 -2.09169805e-01 -3.33401322e-01  1.27550691e-01
  -3.21323961e-01 -7.37571299e-01  6.22335196e-01 -9.00079906e-01
   1.08576035e+00  1.31746590e+00  4.91672345e-02 -5.88582993e-01
   1.04443133e+00 -8.74385655e-01  1.93486124e-01 -3.74597400e-01
  -7.47922435e-02  2.22251061e-02  6.20885432e-01 -6.22895122e-01
   1.23213732e+00 -2.12212771e-01  1.96508918e-04  8.41228843e-01
   2.11734131e-01 -3.96915227e-01  1.83880389e-01  6.93995178e-01]
 [ 3.41887444e-01 -1.13707352e+00 -4.97253537e-01  4.94525462e-01
  -2.02834725e-01  8.78747225e-01  1.17444485e-01  5.54852709e-02
  -7.66282141e-01  8.63922358e-01  8.56626555e-02  9.37630236e-01
  -8.55384052e-01 -1.05915403e+00  2.82807723e-02  9.80541289e-01
  -6.33042336e-01  5.18959701e-01 -5.72612584e-01  8.90640140e-01
  -5.67416847e-01 -4.83468741e-01  5.13606332e-02  3.89016420e-01
  -1.26396310e+00 -6.14038885e-01 -6.56633377e-02 -5.49104333e-01
   4.52497214e-01 -3.37222457e-01 -5.49404807e-02  5.65664582e-02]
 [ 1.72331825e-01  4.39895838e-01  2.62034327e-01  9.42969620e-02
  -1.82242244e-01  5.06554306e-01 -3.22280139e-01  2.15653419e-01
  -4.51843232e-01 -4.01895106e-01  8.19724381e-01 -5.00929058e-01
   7.71140397e-01  6.58145428e-01  5.26856005e-01 -9.94666740e-02
   8.78470361e-01 -6.36821091e-01  2.28654370e-01 -2.25017726e-01
  -3.26888472e-01  1.97876215e-01  8.35775018e-01 -4.49001282e-01
   5.44562638e-01 -4.91567194e-01  6.06949329e-02  7.20980763e-01
   5.02253294e-01 -1.73987672e-01  6.56531215e-01  7.23158002e-01]
 [ 2.73770597e-02 -5.80536246e-01  1.14438549e-01  3.24742198e-01
  -5.40604413e-01  7.90900946e-01  6.42843544e-01 -5.02501309e-01
   2.86534578e-01  7.55267084e-01 -2.76841745e-02  5.43775737e-01
  -4.13024843e-01 -8.99737716e-01  1.71942681e-01  8.06284308e-01
  -4.90280509e-01  8.94933045e-01 -8.85384679e-01  6.11694396e-01
   2.72154093e-01 -8.66778910e-01 -2.10595548e-01 -3.18876475e-01
  -7.71543503e-01 -6.52161300e-01 -7.49234855e-01 -7.27670848e-01
   8.36173445e-02  1.77370697e-01 -4.00278680e-02 -1.25247091e-01]]
fc3.bias: [-0.2464527  -0.27426252 -0.45394474 -0.34457973 -0.05554907  0.07161208
 -0.52009755 -0.613619   -0.44942456 -0.48037148 -0.7241584   0.17195995
 -0.46640942  0.17731135 -0.33407652  0.18958801]
fc4.weight: [[ 0.41973054  1.5643729   1.6132902  -0.7146884   0.50672823  1.7709764
  -1.1964495  -0.6796783   0.8872688  -1.260002    0.28460205 -1.2215639
   1.2445207  -2.3554184   0.71068245 -2.1634433 ]
 [-2.551023    1.8551614   0.4162008  -0.8790877   2.1084893   1.5307931
   0.08194101  0.41416118 -1.6287454  -0.09848894 -0.93329346  2.3501956
  -0.28409386 -0.4463789  -0.5593257   2.040889  ]
 [-0.36941057 -0.14204222  0.35847697  0.98078495 -0.25265437 -0.38400242
   0.8807526   0.8314852   0.52768403  0.8017649   1.0633119   0.06822543
   0.57568437  0.06035372  0.8664713  -0.09664457]]
fc4.bias: [-0.2604028  -0.64750373  0.07518961]
