fc1.weight: [[ 7.98106611e-01 -1.72821701e-01]
 [ 5.19045889e-01  6.96371496e-01]
 [-3.12537014e-01  5.61065376e-01]
 [-3.29742044e-01  2.06745863e-01]
 [ 2.85617709e-01  4.68087137e-01]
 [ 3.12177151e-01 -2.21680403e-02]
 [-4.01038975e-01 -5.70187092e-01]
 [ 4.46222186e-01 -4.58758324e-01]
 [ 4.96348858e-01 -5.40195644e-01]
 [ 1.99488103e-01 -1.62005484e-01]
 [ 5.94037510e-02  6.38830483e-01]
 [ 4.17519748e-01 -2.59507656e-01]
 [ 3.05223495e-01 -1.16474569e-01]
 [-4.41015899e-01 -2.45184392e-01]
 [ 1.96028948e-01  3.93245816e-02]
 [ 2.33689114e-01 -1.91005468e-01]
 [ 5.40973008e-01 -2.15575814e-01]
 [-4.48237360e-01 -2.92671591e-01]
 [-2.47142196e-01  6.45211875e-01]
 [-2.41797026e-02  2.47487128e-01]
 [-3.85540336e-01  4.51662958e-01]
 [-5.72551429e-01 -4.39285874e-01]
 [-4.50009257e-01 -1.48911536e-01]
 [ 2.32341632e-01 -1.57057464e-01]
 [ 4.86647010e-01  6.45203650e-01]
 [-2.70933449e-01 -5.08433461e-01]
 [ 2.05604866e-01  2.81321585e-01]
 [ 7.21890703e-02  1.02742374e-01]
 [-7.85308123e-01 -4.89335179e-01]
 [ 4.80083048e-01 -6.38493717e-01]
 [-7.61964381e-01 -4.62754101e-01]
 [-6.20525718e-01 -7.05905080e-01]
 [-3.37093920e-01 -2.23139524e-02]
 [-1.90907240e-01 -2.83519328e-01]
 [-5.20851389e-02  4.48323667e-01]
 [ 7.50955462e-01  4.52184975e-01]
 [ 5.42674661e-01 -6.54421449e-01]
 [-7.11231351e-01  2.04933643e-01]
 [ 6.90422714e-01 -5.91225863e-01]
 [ 3.38499755e-01  5.39719880e-01]
 [ 4.80524778e-01  6.23801768e-01]
 [-2.32606754e-01  5.96035659e-01]
 [-6.60284579e-01  3.75210226e-01]
 [ 5.79543531e-01  6.75396144e-01]
 [ 1.81387171e-01 -4.52816546e-01]
 [ 2.02088535e-01  6.68046176e-01]
 [-3.48183662e-01 -4.58673865e-01]
 [-2.41849780e-01  7.52544403e-02]
 [-3.45848501e-01 -5.83218217e-01]
 [ 4.91012096e-01 -2.82485783e-01]
 [-6.04587734e-01  1.30830407e-02]
 [-4.86838549e-01  1.70045674e-01]
 [ 3.83997278e-04  4.10240710e-01]
 [-1.30924672e-01  5.52368462e-01]
 [ 1.57147262e-03 -4.73184854e-01]
 [-7.66197145e-02 -4.53945994e-02]
 [ 6.45894185e-02 -1.72005773e-01]
 [-4.73948300e-01  1.66896641e-01]
 [ 7.10483670e-01 -8.70071054e-02]
 [-2.70206869e-01 -5.36061525e-02]
 [ 6.93832457e-01  5.16099274e-01]
 [ 6.46295965e-01 -6.86217368e-01]
 [-4.23080176e-01 -8.45980644e-02]
 [ 5.72205126e-01  3.36695373e-01]]
fc1.bias: [ 3.4185141e-01 -1.2503187e-01 -3.0970219e-01  2.0293118e-01
 -3.7169793e-01 -1.3187729e-01  4.2073786e-01 -6.6888601e-02
 -4.7107157e-01 -2.4210913e-02  2.0477545e-01  6.4755887e-01
  3.1934729e-01 -2.6188171e-01  1.7052534e-01 -2.6046611e-02
  1.4265183e-01 -3.4206823e-02 -4.1386604e-01  1.4825404e-02
  2.1565747e-01 -1.6039857e-01 -1.6182466e-01 -6.5579660e-02
  9.1902025e-02 -1.4658789e-01  2.2199933e-01  8.8973068e-02
 -4.8061022e-01 -3.9097562e-01  6.1424208e-01  1.5111357e-01
  6.6052862e-02  4.8170697e-02  3.6488079e-02 -9.2539579e-02
 -1.3042877e-02 -5.2296674e-01 -5.1186782e-01 -5.2640706e-02
 -1.2414369e-02 -6.6481233e-02 -4.4202849e-01 -1.6520320e-01
 -3.9210132e-01 -5.5886585e-01  5.8716178e-01  3.2109183e-01
 -1.6034806e-01 -3.1842467e-01 -4.9438101e-01  1.5240081e-01
 -5.0108286e-04  3.2218376e-01  1.6733226e-03  2.5337117e-02
  2.9829934e-01 -5.8667523e-01 -3.2659909e-01  6.5951096e-03
  4.8845661e-01 -3.5734969e-01  1.6946110e-01  3.7076190e-01]
fc2.weight: [[-0.08868784 -0.01614608  0.07976457 ... -0.0626623   0.04472743
  -0.05931738]
 [-0.12253958  0.06975219  0.00600034 ... -0.0583     -0.02915244
  -0.07000574]
 [ 0.05316774  0.05892067  0.06995314 ...  0.09161559  0.07592069
  -0.00898481]
 ...
 [ 0.14598092 -0.04631975 -0.08623412 ... -0.09548675 -0.11339428
  -0.08152862]
 [ 0.04934285  0.16793923  0.03149965 ...  0.0030061   0.01017949
  -0.09145967]
 [ 0.13032524 -0.09067857 -0.1270388  ... -0.09324431  0.11280015
  -0.02513945]]
fc2.bias: [ 0.0061514  -0.08590493  0.04863499 -0.04826444 -0.01205871  0.01370875
 -0.06103803 -0.05241928 -0.08730193 -0.10372512 -0.0617705   0.10377267
  0.0941413  -0.03198982  0.13669372 -0.09428085 -0.03699156 -0.02279088
  0.04891903 -0.11059636  0.02279291 -0.01084103  0.08826328  0.08721991
 -0.12759514 -0.05235594 -0.10097075 -0.00809479 -0.12627451  0.06367595
  0.02320785  0.09782659  0.01078877 -0.03295812  0.03924866  0.06910849
  0.08668549 -0.08223366 -0.11219183  0.00142895 -0.03708247  0.06115521
 -0.11162461 -0.07350896 -0.05346616 -0.00260042 -0.10094672  0.07171396
  0.11304858  0.05463123  0.03859886 -0.1152818   0.02195819  0.06055976
 -0.0759466   0.00065798 -0.00650341  0.11311615 -0.03104574 -0.01489618
  0.02588494 -0.03556972 -0.0063312  -0.0902931 ]
fc3.weight: [[-8.84464826e-04 -1.20653115e-01 -1.01379956e-04 -2.52197991e-04
   3.09652351e-05 -2.14095053e-04 -1.27611984e-05  2.65031322e-05
  -8.18102658e-02  6.94544166e-02  1.43546407e-04 -2.11732637e-04
  -3.37880832e-04 -4.67735750e-04  7.80376717e-02 -1.09143145e-01
   4.11746041e-05  8.38358537e-05 -1.81808893e-04  1.34804926e-04
   8.75002443e-05  3.11631040e-04 -4.78377828e-04 -2.21953116e-04
   1.18282840e-01  7.43584416e-04  4.01185243e-04  9.52974409e-02
   7.04308450e-02 -5.28673700e-04 -2.32296484e-03 -6.65356517e-02
  -7.56184163e-05  4.10916917e-02 -8.75183498e-04 -2.79743057e-02
  -2.19427273e-02 -4.36490955e-05  9.55015654e-04 -1.03004919e-02
   2.33805054e-04  1.11542039e-01  1.43783094e-04 -4.51137574e-04
   2.70651304e-04 -3.11357289e-05  2.72352790e-05 -6.16920646e-04
  -1.46751525e-02 -3.60606937e-04 -4.34474699e-04  3.94108560e-04
  -2.75168428e-03 -2.68353964e-04  1.39734708e-04 -2.04278214e-04
  -1.93427390e-04 -6.51190581e-04  7.22083747e-02  4.61230200e-04
   8.21671635e-02  7.02788085e-02  1.22642986e-01  4.52628679e-04]
 [-2.92609475e-04  2.91211624e-02  2.50383237e-05 -6.30130089e-05
   5.31219739e-05 -2.51447404e-04  3.42225139e-05 -1.13356136e-05
   5.20365797e-02  3.14743444e-02  1.66283164e-04 -1.47337865e-04
  -3.92299873e-04 -2.31471160e-04 -1.06620854e-02  5.56504652e-02
  -1.87316164e-06  8.69125070e-05 -2.06577082e-04  1.08125045e-04
   5.89025949e-05  2.43804156e-04 -1.77611786e-04 -1.63436649e-04
  -3.64944264e-02  9.71637375e-04  3.40671249e-04 -1.80093925e-02
   9.44365039e-02 -1.91058993e-04  3.50360423e-02 -4.04914375e-04
  -1.80110801e-05  4.42806585e-03 -4.63770062e-04  7.61108845e-02
   1.15926005e-02  3.98563971e-05  1.37502421e-03  7.70666301e-02
   2.53289327e-04 -1.10299274e-01  2.09231712e-06 -1.98620706e-04
   9.78050230e-05  2.67114738e-05  2.49998684e-05 -1.59482224e-04
  -3.84691097e-02 -1.72562897e-04 -5.40412730e-04  3.73003917e-04
   7.62890577e-02 -3.55981465e-04  9.09163427e-05 -7.97283137e-05
  -1.30539978e-04 -7.61512609e-04  5.43340109e-02  3.43580265e-04
  -8.75899270e-02 -1.30729610e-02  5.66998683e-02  4.64531040e-04]]
fc3.bias: [0.10136653 0.08544149]
