fc1.weight: [[ 6.18019812e-02  2.41631940e-01]
 [-7.59373903e-02 -2.83748984e-01]
 [-3.41104250e-03 -5.22747077e-03]
 [-3.54350242e-03 -4.15180949e-03]
 [ 6.59489110e-02  2.87198067e-01]
 [ 1.59753987e-03 -1.96719728e-03]
 [-4.41111863e-01 -1.18404984e-01]
 [ 1.99874793e-03 -7.81013048e-04]
 [ 1.03825005e-04  2.51185591e-03]
 [-4.29838896e-04  1.22299232e-03]
 [-1.73983537e-03 -5.53929247e-04]
 [-2.62650549e-01  4.57401305e-01]
 [-2.77970135e-01  2.19645023e-01]
 [ 6.14092648e-01 -3.19584519e-01]
 [-1.01490758e-01 -2.47299135e-01]
 [-3.39648426e-01  4.83471811e-01]
 [-9.70541909e-02 -3.09196293e-01]
 [-4.14092720e-01 -5.22578061e-01]
 [-3.91935557e-01  7.53616929e-01]
 [ 1.88819785e-03  4.24195605e-04]
 [-6.87675104e-02 -2.56588787e-01]
 [ 3.23954493e-01 -5.64829826e-01]
 [-1.02814026e-01 -2.22874239e-01]
 [ 7.90926367e-02  3.19863498e-01]
 [ 3.59809818e-03 -3.79882578e-04]
 [ 1.01708941e-01  1.33981630e-01]
 [ 1.89351335e-01 -9.59456787e-02]
 [ 5.03260434e-01 -3.47449809e-01]
 [ 3.11735302e-01 -5.30197740e-01]
 [-9.14629102e-02 -2.01538250e-01]
 [-3.93609167e-04  1.53531146e-03]
 [-2.73972183e-01  2.26553708e-01]
 [ 2.20140978e-03  2.69344426e-03]
 [-1.81284430e-03  1.10361038e-03]
 [ 6.65115416e-02  3.63723636e-01]
 [-7.21357286e-01  8.06198046e-02]
 [ 1.15358837e-01  7.87086785e-02]
 [ 3.30808133e-01  3.90289932e-01]
 [ 2.80578345e-01 -5.00315607e-01]
 [ 1.01960972e-02 -3.06360107e-02]
 [-5.80752790e-01  3.96814257e-01]
 [ 3.55386764e-01 -7.54924238e-01]
 [ 2.84730732e-01 -2.28994638e-01]
 [-7.42211044e-02 -2.74057776e-01]
 [ 3.28473985e-01 -5.50621927e-01]
 [ 5.41027784e-02  1.08586609e-01]
 [ 1.88784823e-01  1.45593937e-02]
 [-3.98251802e-01 -7.80677944e-02]
 [ 6.14361227e-01 -9.93659836e-04]
 [-6.21751994e-02 -6.91543669e-02]
 [ 3.36247623e-01  1.42762974e-01]
 [-1.41221702e-01 -1.32037431e-01]
 [-9.92757261e-01  2.03165993e-01]
 [-2.72146255e-01 -1.74737215e-01]
 [ 8.22692737e-02  2.60654837e-01]
 [ 2.71192286e-04  3.47918191e-04]
 [-3.20021540e-01  3.25933546e-01]
 [ 3.65592062e-01 -7.26541579e-01]
 [-9.35214979e-04 -8.70616175e-03]
 [ 5.08601144e-02  9.47890058e-02]
 [ 2.13549986e-01 -6.45598695e-02]
 [-3.78346026e-01  2.55897641e-01]
 [-4.22028452e-01 -2.07278520e-01]
 [-8.03412646e-02 -2.89784789e-01]]
fc1.bias: [-6.3273042e-01 -1.0009090e+00 -5.2717497e-04 -1.4294646e-04
 -8.6092103e-01  4.0337085e-03  7.7371466e-01  1.9554691e-03
 -1.7004171e-03  4.9300317e-04  3.0701698e-03  5.4969192e-01
  1.1278207e+00  1.2346054e+00  1.0959004e+00 -1.3426536e-01
 -1.3033768e+00 -5.2960813e-01  9.0374798e-01  9.8260900e-04
 -7.6774734e-01 -9.0556765e-01 -1.0083916e+00 -1.1909627e+00
  3.2613322e-03  4.6049637e-01  6.1886442e-01 -1.3510485e+00
  8.9669359e-01 -8.3817112e-01  1.4898679e-03 -9.0962863e-01
 -1.8828973e-03 -1.9482033e-03 -1.2804604e+00 -7.9878521e-01
 -1.8061572e-01  1.0018943e-01 -5.4913467e-01  1.4847798e-02
 -1.5568389e+00 -2.5158066e-01  1.0609288e+00 -8.7430835e-01
  1.0141021e+00  2.7015236e-01 -1.0076448e+00  7.2697502e-01
 -2.0431744e-01 -3.2221001e-01  7.4282044e-01 -1.0107986e+00
  3.0571783e-01 -9.3312256e-02  8.9243156e-01  2.8366162e-03
  5.9650612e-01  8.1478500e-01  2.3453992e-03 -2.1362484e-01
 -9.5381993e-01  9.5716017e-01  1.0223074e+00  1.0337186e+00]
fc2.weight: [[-0.54200244  0.05361996 -0.02406084 ...  0.23143318  0.03506121
   0.58097845]
 [-0.1155906  -0.19378668 -0.0676441  ...  0.25525358 -0.11366009
   0.20923798]
 [ 0.2709783  -0.03386838  0.00605936 ... -0.08127408 -0.20687154
  -0.1580129 ]
 ...
 [ 0.05639108 -0.05313492 -0.01226884 ...  0.08274982  0.07042226
   0.02436719]
 [-0.03709793 -0.5927274   0.01392412 ...  0.13917449 -0.10661703
  -0.11410602]
 [ 0.12940755  0.249055   -0.12566814 ... -0.02866371  0.0742726
   0.00564129]]
fc2.bias: [-0.1743911   0.02994434  0.19366421 -0.06521467  0.01522071 -0.1978095
 -0.0842974  -0.14284885 -0.11297803  0.01836886  0.12806953  0.21777834
  0.09061778 -0.07715255  0.08777515  0.02171151 -0.16295493 -0.15149732
 -0.19486862 -0.00279641  0.15684362 -0.05572201  0.01226207  0.2951235
 -0.35841525  0.01908397  0.29625887  0.1538646  -0.18222414  0.24708112
 -0.18690349  0.15327904  0.17617926 -0.08771625  0.0276057   0.21755815
 -0.16285072  0.03330037  0.20355764  0.06505142  0.01583037 -0.01366939
  0.246343    0.04243598 -0.09048992 -0.09713683  0.03175278  0.3549005
 -0.25575367  0.35813966  0.01632471  0.06891624 -0.00143953  0.03670747
  0.18629216 -0.11109167  0.04252142 -0.011576    0.1172384   0.02606775
  0.02562595  0.00231769  0.08876801  0.05156766]
fc3.weight: [[-7.82090351e-02 -9.56072123e-04  6.89814463e-02 ... -3.26934649e-04
  -1.66890696e-01 -1.29088736e-03]
 [ 2.87728399e-01  3.65714997e-01 -6.03758812e-01 ... -3.63513529e-02
   1.17998682e-01 -8.85334387e-02]
 [ 2.14783370e-01  2.08470881e-01 -4.88679647e-01 ...  4.12221141e-02
   1.38637453e-01  4.33123261e-02]
 ...
 [ 7.20214918e-02  6.92625120e-02 -1.34030744e-01 ... -4.96530021e-03
   1.13061383e-01 -5.07119065e-03]
 [ 5.23068905e-01  1.29235953e-01 -6.99256957e-01 ... -1.44446656e-01
   6.88913539e-02 -4.38772142e-02]
 [-6.57489300e-02  1.34718316e-02  1.08278379e-01 ... -1.10256944e-04
  -3.40637654e-01  4.75539564e-05]]
fc3.bias: [ 0.10131724  0.13520059  0.19597088 -0.36435327  0.20149527 -0.14970018
  0.11234292  0.18189883  0.06039912  0.02938494 -0.05558599 -0.12372755
 -0.04072051 -0.01750118 -0.08502158 -0.02032015 -0.07190719 -0.02104752
 -0.37954184 -0.13696808 -0.09227064  0.10469344  0.01634279  0.1486981
  0.00298255 -0.10736415  0.11167878  0.19118397  0.12639797  0.09216854
  0.42401752 -0.044759  ]
fc4.weight: [[-1.91146761e-01  3.13864917e-01  4.96270228e-03  2.18712881e-01
  -2.08584834e-02  6.94345869e-03  8.05850103e-02 -8.56594369e-02
  -6.70855194e-02  4.52293277e-01  9.51172486e-02  1.96792111e-01
   4.48272198e-01  4.75459099e-02 -1.74445167e-01  4.36597407e-01
  -3.34043562e-01  5.47740579e-01  8.81291330e-02  9.03657749e-02
  -4.48750973e-01  5.72790265e-01 -1.61433533e-01  3.16329375e-02
  -2.63213962e-01 -1.64402157e-01  6.91997185e-02 -3.10391605e-01
   7.35125504e-03  2.49988973e-01  1.04745358e-01 -2.12670475e-01]
 [-9.01791602e-02  1.39604971e-01 -1.12208664e-01 -1.02116436e-01
  -1.16101332e-01  1.04170710e-01 -5.71167618e-02  2.19054401e-01
  -2.13854074e-01 -4.10559803e-01  4.32665199e-02 -3.80540311e-01
  -5.94615519e-01  3.92781629e-04 -3.56183201e-01 -2.10320428e-01
   1.10416688e-01 -1.00653619e-01 -2.49065399e-01 -2.17585891e-01
   2.00601667e-01 -1.39856994e-01 -2.39463985e-01  5.59080765e-02
   3.11294943e-03  5.72720170e-02  1.41686484e-01  8.20276812e-02
  -7.22954795e-02  2.76224375e-01  4.62568820e-01 -5.34048736e-01]
 [-5.41628957e-01 -1.04791708e-01 -2.82499138e-02  1.66727930e-01
  -1.26469418e-01  3.07044953e-01  4.95683476e-02 -4.87423450e-01
   1.93545580e-01  3.84598821e-01  2.23650545e-01 -2.52650212e-02
   4.67011817e-02  6.79015834e-03 -3.00322205e-01  6.01145506e-01
  -2.98677795e-02  4.21346575e-01  2.99690723e-01  1.76131241e-02
  -7.33070254e-01  9.38428715e-02 -2.24620476e-01 -1.42929107e-01
  -3.31612617e-01  1.14322618e-01 -1.50610834e-01  5.50729930e-02
   1.06471017e-01  1.02518246e-01 -8.88284370e-02  6.98555335e-02]
 [-1.18271925e-03  1.96060956e-01  3.86335135e-01 -7.24402666e-02
   3.08631569e-01 -2.72307813e-01  2.87845820e-01  1.99322365e-02
   8.04460496e-02  1.07524395e-01 -1.84608221e-01  3.72157365e-01
   1.54408321e-01 -1.95785478e-01 -2.35410586e-01  1.69018462e-01
  -8.57922882e-02  6.37022108e-02 -5.75849079e-02  1.55031890e-01
  -1.89646721e-01  5.59012651e-01 -4.64433938e-01  1.00811943e-01
  -2.27409944e-01 -2.46908963e-01  4.23874527e-01 -1.91970661e-01
  -6.39274791e-02  1.96388885e-01  2.84123868e-01 -5.70049763e-01]
 [-6.87155947e-02  2.41706714e-01  1.04851723e-01 -3.93404551e-02
  -1.68155804e-01 -2.79970348e-01  2.40085497e-01  8.01946148e-02
  -3.54114950e-01 -9.17389467e-02  1.19827539e-01 -3.14912349e-01
  -3.07649463e-01 -4.25360978e-01 -3.17342490e-01 -1.67063072e-01
   2.32083946e-01 -5.24488017e-02 -1.79236844e-01 -4.03268516e-01
   1.05717853e-01  1.20465353e-01 -2.41991416e-01  3.82174850e-02
  -7.11361915e-02 -2.46777266e-01 -1.49229094e-01  8.10516179e-02
   7.43830428e-02  4.64777738e-01  4.96488124e-01 -4.63881850e-01]
 [-2.97158420e-01  1.99449271e-01  1.30303621e-01  4.44110483e-03
   9.09699723e-02 -2.97089964e-02  2.33990788e-01 -4.28988874e-01
   1.89592108e-01  4.76045281e-01 -5.43264439e-03  2.17765108e-01
   1.83342144e-01 -4.67168503e-02 -3.27042788e-02  4.39295650e-01
  -2.19503552e-01  4.47245866e-01  7.79965073e-02  3.06989014e-01
  -1.90515727e-01  2.14844987e-01 -1.34614587e-01 -2.41878517e-02
  -4.80792254e-01 -1.30054712e-01 -1.01587892e-01 -4.86455351e-01
  -3.45479436e-02 -5.94646223e-02 -1.99132457e-01 -6.34912029e-02]
 [ 6.29861414e-01  3.00902128e-01  1.45618126e-01 -3.41478080e-01
   2.23196059e-01 -2.03424931e-01  1.09198488e-01  4.16738540e-01
   3.31080854e-02  4.80776221e-01 -1.09393224e-01  4.35252994e-01
  -1.90645773e-02 -9.45378765e-02  2.77060449e-01  2.06364449e-02
   1.35026099e-02  4.04999703e-02 -1.26324952e-01  5.47073245e-01
   3.93777281e-01 -2.84764189e-02  1.31652087e-01  1.27569437e-01
   7.48200491e-02 -8.62758383e-02  3.58517140e-01 -4.34158780e-02
   2.89919525e-01  2.01407030e-01  1.09104820e-01  2.65211731e-01]
 [ 8.83130506e-02  2.13137820e-01  3.59862626e-01 -1.45375043e-01
   3.07244331e-01 -3.15649301e-01  2.73094952e-01 -6.71763867e-02
  -3.60545784e-01 -2.45847598e-01 -3.34297754e-02  1.19606644e-01
  -2.19299600e-01 -3.11549008e-01 -3.68961334e-01  9.85235795e-02
  -2.09267199e-01  1.17508419e-01 -1.27370864e-01  3.50274444e-01
  -2.71963272e-02  2.36989021e-01 -3.73328328e-01  3.42862487e-01
  -5.39514124e-02 -8.98596868e-02  3.37550074e-01 -4.05885726e-02
  -1.24807984e-01  3.88906896e-01  3.05121541e-01 -2.53476024e-01]
 [ 6.75908983e-01 -1.68386325e-01  1.19294159e-01 -3.15768957e-01
   2.31654957e-01 -2.26187825e-01  5.76878153e-02  2.20752612e-01
   2.36950472e-01  2.07703143e-01 -3.66800487e-01  1.95267379e-01
   1.29576474e-01 -5.93905225e-02  6.18376076e-01 -7.97608346e-02
   8.86936556e-04 -6.09886972e-03  9.72631350e-02  2.27761298e-01
   4.39750046e-01 -2.46001273e-01  9.04299542e-02 -6.50888681e-02
  -1.05442643e-01 -2.17707213e-02  3.31010163e-01 -1.04823343e-01
   2.72014458e-02 -2.36206353e-01 -1.91842541e-01  3.38696003e-01]
 [-1.71981111e-01  2.52766877e-01  2.93264240e-01  3.17399614e-02
   1.78511113e-01  1.90360509e-02  4.47515070e-01  1.70012563e-02
  -1.96257666e-01 -2.57460833e-01 -1.56357110e-01  4.51281488e-01
   6.56765848e-02 -1.88760310e-01 -5.79964459e-01  1.22998819e-01
   4.62535135e-02 -4.67975251e-02 -2.81911254e-01  2.91627526e-01
  -6.25372976e-02  2.93337733e-01 -4.89881754e-01  3.16240609e-01
   6.70953095e-02 -1.25514001e-01  3.53249162e-02 -1.57947745e-02
   1.18413419e-01  2.46116474e-01  2.16022551e-01 -7.54545152e-01]
 [-2.06188828e-01 -9.53374058e-02  1.17854469e-01  3.68527651e-01
  -2.06502020e-01  8.35667104e-02  6.38644993e-02 -2.89893389e-01
   2.25877523e-01  2.42077529e-01  3.21194679e-01 -1.74543455e-01
   1.73487127e-01  2.71352213e-02  1.04905497e-02  5.34571588e-01
  -2.60385096e-01  9.70458016e-02  2.05692947e-02  3.23236268e-03
  -4.13852155e-01  4.85173091e-02 -6.33200705e-02  9.76215973e-02
  -6.11312985e-01 -3.99578325e-02 -1.57054961e-01 -1.42445609e-01
  -2.22440809e-01  7.82491267e-02 -1.56340972e-01 -2.56408811e-01]
 [ 2.50290837e-02  2.62985826e-01  5.95881790e-03 -3.89597625e-01
   1.29060820e-01 -2.32078865e-01 -1.02874652e-01 -4.80357073e-02
   3.53870839e-02  4.11849707e-01  8.31499621e-02  3.22177559e-01
   5.82798302e-01  3.22144687e-01  2.75518000e-01 -9.03052166e-02
   2.45649904e-01  3.67521167e-01  1.83529660e-01  3.60807896e-01
   1.28238216e-01  4.56831276e-01 -3.30878189e-03 -1.20575890e-01
  -7.91298412e-03 -8.37950334e-02  1.73847899e-01 -1.25497222e-01
   3.74082714e-01 -1.83768645e-01 -2.14075983e-01  3.24767649e-01]
 [-6.44403815e-01  2.11874340e-02 -1.41814992e-01  2.30536714e-01
  -1.39020935e-01  2.14834720e-01  9.24397036e-02 -3.96646917e-01
  -1.58187643e-01  1.40177175e-01  2.21288458e-01 -1.63595647e-01
  -8.16931948e-02 -1.27209812e-01 -1.00980960e-01  2.36803502e-01
  -5.39097905e-01  1.18165419e-01  1.89923480e-01 -1.34678081e-01
  -4.84441340e-01  7.74158761e-02  9.17415023e-02  1.87973648e-01
  -4.30307180e-01 -1.75999999e-01 -5.56401610e-01 -5.26459455e-01
  -3.31162214e-01 -5.36320396e-02 -1.63106292e-01  4.24225535e-03]
 [-8.07053894e-02  2.79823869e-01  3.94213907e-02 -9.09116194e-02
   8.90009403e-02 -1.11271240e-01  2.98164010e-01 -2.97436357e-01
  -2.50534620e-02  2.09695086e-01 -1.25583097e-01  3.83223772e-01
   4.31069136e-01 -2.11820304e-01 -2.18892574e-01  4.25248623e-01
  -1.93124726e-01  5.98358691e-01  1.49670377e-01  1.36719465e-01
  -2.49124065e-01  5.08567750e-01 -2.47083008e-01  1.98726058e-01
  -1.03794031e-01 -8.92874300e-02  1.01189539e-01 -2.59510070e-01
   2.45989878e-02  2.12260991e-01 -8.34519938e-02 -2.84530789e-01]
 [ 7.20643401e-01 -1.39216781e-01 -1.79152444e-01 -1.28289983e-01
   2.35273063e-01 -1.08578376e-01  1.72763631e-01  5.15980087e-02
   3.19260597e-01  4.92716655e-02 -3.63373786e-01  8.49755704e-02
   3.50200683e-01  5.34912292e-03  6.62834167e-01  9.01192874e-02
  -1.15575105e-01 -1.93078831e-01  2.29168653e-01  1.80274233e-01
  -4.08256762e-02 -1.20715618e-01  9.32741761e-02 -1.59552127e-01
  -1.33167684e-01  7.17052296e-02  2.89450765e-01 -5.50319403e-02
   2.47065321e-01 -2.61722326e-01 -2.22669002e-02  5.58856130e-01]
 [-2.07494423e-01  1.97529286e-01  9.05683860e-02 -1.17875353e-01
   2.54869223e-01 -2.07828403e-01  4.00064051e-01 -9.62717980e-02
   1.33774340e-01  2.05406174e-01 -9.76749361e-02  3.95036161e-01
   1.84299454e-01 -2.96888620e-01 -1.92196250e-01  2.25227818e-01
  -1.05047738e-03  3.37501049e-01 -1.17709406e-01  2.72593409e-01
  -1.47428662e-01  6.59934938e-01 -4.00718331e-01  1.13023199e-01
  -2.45429218e-01 -1.86286107e-01 -1.17401220e-01 -1.07799001e-01
  -1.14801727e-01  2.55564451e-01  1.01454444e-01 -3.29631627e-01]]
fc4.bias: [-0.03716536  0.19551691 -0.16247362  0.0178511   0.1540958  -0.22304979
  0.19232391  0.12522411 -0.00476777  0.16494356 -0.02497099  0.06609112
 -0.1443782   0.06987824  0.02897995 -0.06978168]
fc5.weight: [[ 0.71417874  0.72346216  0.6672939   0.4234804   0.63157266  0.455073
  -0.7749972   0.5643156  -0.7736257   0.73018783  0.60945857 -0.35473666
   0.5884173   0.60446537 -0.87789655  0.6539255 ]
 [ 0.71259636 -0.3531153   0.5003448   0.57516587 -0.19246426  0.60039586
   0.1978422   0.44413608  0.13432266  0.34837478  0.309605    0.6639306
   0.04830356  0.7002679   0.27961338  0.6366245 ]]
fc5.bias: [0.0121285  0.01433701]
